<?xml version="1.0"?>
<opencv_storage>
<stage7>
  <maxWeakCount>8</maxWeakCount>
  <stageThreshold>-2.0773971080780029e+00</stageThreshold>
  <weakClassifiers>
    <_>
      <internalNodes>
        0 -1 1399453 1.6706057358533144e-03</internalNodes>
      <leafValues>
        -7.6099878549575806e-01 5.2577316761016846e-01</leafValues></_>
    <_>
      <internalNodes>
        0 -1 1284308 -7.0532085373997688e-04</internalNodes>
      <leafValues>
        4.7509753704071045e-01 -5.7609081268310547e-01</leafValues></_>
    <_>
      <internalNodes>
        0 -1 329510 -4.4816911220550537e-02</internalNodes>
      <leafValues>
        3.1918749213218689e-01 -7.6345741748809814e-01</leafValues></_>
    <_>
      <internalNodes>
        0 -1 1658234 2.1025323076173663e-04</internalNodes>
      <leafValues>
        -7.1856379508972168e-01 3.4062054753303528e-01</leafValues></_>
    <_>
      <internalNodes>
        0 -1 648766 4.9482889473438263e-02</internalNodes>
      <leafValues>
        2.2717095911502838e-01 -9.5507979393005371e-01</leafValues></_>
    <_>
      <internalNodes>
        0 -1 1007367 -3.8162064738571644e-03</internalNodes>
      <leafValues>
        -8.4854257106781006e-01 2.2341659665107727e-01</leafValues></_>
    <_>
      <internalNodes>
        0 -1 638354 -1.6051249112933874e-03</internalNodes>
      <leafValues>
        6.7783111333847046e-01 -3.8006436824798584e-01</leafValues></_>
    <_>
      <internalNodes>
        0 -1 20469 -2.2348694503307343e-02</internalNodes>
      <leafValues>
        6.7119044065475464e-01 -3.3192297816276550e-01</leafValues></_></weakClassifiers></stage7>
</opencv_storage>
