<?xml version="1.0"?>
<opencv_storage>
<stage11>
  <maxWeakCount>10</maxWeakCount>
  <stageThreshold>-2.0725176334381104e+00</stageThreshold>
  <weakClassifiers>
    <_>
      <internalNodes>
        0 -1 890071 -3.4286892041563988e-03</internalNodes>
      <leafValues>
        7.9239299520850182e-03 -8.4351712465286255e-01</leafValues></_>
    <_>
      <internalNodes>
        0 -1 1461219 -1.2048643548041582e-03</internalNodes>
      <leafValues>
        3.1282362341880798e-01 -6.2206482887268066e-01</leafValues></_>
    <_>
      <internalNodes>
        0 -1 1671780 -6.4157776068896055e-04</internalNodes>
      <leafValues>
        2.1419517695903778e-01 -7.1820014715194702e-01</leafValues></_>
    <_>
      <internalNodes>
        0 -1 960794 7.9329013824462891e-03</internalNodes>
      <leafValues>
        2.2160892188549042e-01 -8.1226956844329834e-01</leafValues></_>
    <_>
      <internalNodes>
        0 -1 1399435 -3.8181268610060215e-04</internalNodes>
      <leafValues>
        4.9350976943969727e-01 -3.8435921072959900e-01</leafValues></_>
    <_>
      <internalNodes>
        0 -1 1190018 -1.0698030702769756e-02</internalNodes>
      <leafValues>
        5.9177607297897339e-01 -3.0909103155136108e-01</leafValues></_>
    <_>
      <internalNodes>
        0 -1 1213893 1.2891176156699657e-02</internalNodes>
      <leafValues>
        2.2084042429924011e-01 -8.6939096450805664e-01</leafValues></_>
    <_>
      <internalNodes>
        0 -1 1369243 -3.7496253848075867e-02</internalNodes>
      <leafValues>
        -9.1999334096908569e-01 1.3760282099246979e-01</leafValues></_>
    <_>
      <internalNodes>
        0 -1 1604194 1.5556109137833118e-03</internalNodes>
      <leafValues>
        -7.7188849449157715e-01 1.7279142141342163e-01</leafValues></_>
    <_>
      <internalNodes>
        0 -1 670046 -1.4746482670307159e-01</internalNodes>
      <leafValues>
        -9.6224099397659302e-01 1.1868198215961456e-01</leafValues></_></weakClassifiers></stage11>
</opencv_storage>
