<?xml version="1.0"?>
<opencv_storage>
<stage6>
  <maxWeakCount>7</maxWeakCount>
  <stageThreshold>-2.0431120395660400e+00</stageThreshold>
  <weakClassifiers>
    <_>
      <internalNodes>
        0 -1 1121754 7.2665704647079110e-04</internalNodes>
      <leafValues>
        -7.9715520143508911e-01 4.5505619049072266e-01</leafValues></_>
    <_>
      <internalNodes>
        0 -1 952926 6.8904422223567963e-03</internalNodes>
      <leafValues>
        2.9277539253234863e-01 -8.2457274198532104e-01</leafValues></_>
    <_>
      <internalNodes>
        0 -1 1540186 4.0788091719150543e-02</internalNodes>
      <leafValues>
        3.2495871186256409e-01 -7.8514140844345093e-01</leafValues></_>
    <_>
      <internalNodes>
        0 -1 1225231 6.6937721567228436e-04</internalNodes>
      <leafValues>
        -7.7034270763397217e-01 2.7860295772552490e-01</leafValues></_>
    <_>
      <internalNodes>
        0 -1 1506742 7.8475498594343662e-04</internalNodes>
      <leafValues>
        -3.2014051079750061e-01 8.1038922071456909e-01</leafValues></_>
    <_>
      <internalNodes>
        0 -1 1767961 4.1848444379866123e-03</internalNodes>
      <leafValues>
        -2.9470667243003845e-01 7.2376841306686401e-01</leafValues></_>
    <_>
      <internalNodes>
        0 -1 513170 6.1357585946097970e-04</internalNodes>
      <leafValues>
        -3.0839735269546509e-01 7.0000159740447998e-01</leafValues></_></weakClassifiers></stage6>
</opencv_storage>
