<?xml version="1.0"?>
<opencv_storage>
<stage12>
  <maxWeakCount>11</maxWeakCount>
  <stageThreshold>-1.8804956674575806e+00</stageThreshold>
  <weakClassifiers>
    <_>
      <internalNodes>
        0 -1 816627 4.4691916555166245e-03</internalNodes>
      <leafValues>
        -7.2401434183120728e-01 2.8428092598915100e-01</leafValues></_>
    <_>
      <internalNodes>
        0 -1 1328466 -3.1184675171971321e-03</internalNodes>
      <leafValues>
        2.3703496158123016e-01 -7.0435035228729248e-01</leafValues></_>
    <_>
      <internalNodes>
        0 -1 587190 2.1868266630917788e-03</internalNodes>
      <leafValues>
        -7.6223224401473999e-01 1.9977262616157532e-01</leafValues></_>
    <_>
      <internalNodes>
        0 -1 721312 6.9145159795880318e-03</internalNodes>
      <leafValues>
        2.1382746100425720e-01 -9.0932613611221313e-01</leafValues></_>
    <_>
      <internalNodes>
        0 -1 592144 -8.7078306823968887e-03</internalNodes>
      <leafValues>
        1.8567469716072083e-01 -7.5395423173904419e-01</leafValues></_>
    <_>
      <internalNodes>
        0 -1 1570369 4.6761974772380199e-06</internalNodes>
      <leafValues>
        -5.1181566715240479e-01 3.6206051707267761e-01</leafValues></_>
    <_>
      <internalNodes>
        0 -1 1749148 -1.1073548812419176e-03</internalNodes>
      <leafValues>
        -8.7202435731887817e-01 2.2941002249717712e-01</leafValues></_>
    <_>
      <internalNodes>
        0 -1 1449035 9.8922979086637497e-03</internalNodes>
      <leafValues>
        1.5259169042110443e-01 -7.9557925462722778e-01</leafValues></_>
    <_>
      <internalNodes>
        0 -1 961011 -1.1498652398586273e-02</internalNodes>
      <leafValues>
        -8.7552058696746826e-01 1.5008185803890228e-01</leafValues></_>
    <_>
      <internalNodes>
        0 -1 1459500 -6.6571007482707500e-04</internalNodes>
      <leafValues>
        5.9497642517089844e-01 -2.8999865055084229e-01</leafValues></_>
    <_>
      <internalNodes>
        0 -1 1060018 -1.5723241493105888e-02</internalNodes>
      <leafValues>
        3.8551214337348938e-01 -4.5182675123214722e-01</leafValues></_></weakClassifiers></stage12>
</opencv_storage>
