<?xml version="1.0"?>
<opencv_storage>
<stage5>
  <maxWeakCount>6</maxWeakCount>
  <stageThreshold>-1.9249676465988159e+00</stageThreshold>
  <weakClassifiers>
    <_>
      <internalNodes>
        0 -1 1516154 7.3441379936411977e-04</internalNodes>
      <leafValues>
        -8.1082761287689209e-01 4.8087432980537415e-01</leafValues></_>
    <_>
      <internalNodes>
        0 -1 250606 -2.1309271454811096e-01</internalNodes>
      <leafValues>
        5.2081429958343506e-01 -6.6258108615875244e-01</leafValues></_>
    <_>
      <internalNodes>
        0 -1 736458 -1.8384366994723678e-03</internalNodes>
      <leafValues>
        7.1586823463439941e-01 -4.1613823175430298e-01</leafValues></_>
    <_>
      <internalNodes>
        0 -1 1699508 7.5640473514795303e-03</internalNodes>
      <leafValues>
        -9.7817808389663696e-01 3.2024723291397095e-01</leafValues></_>
    <_>
      <internalNodes>
        0 -1 1570242 4.6761974772380199e-06</internalNodes>
      <leafValues>
        -5.6922203302383423e-01 4.7216963768005371e-01</leafValues></_>
    <_>
      <internalNodes>
        0 -1 945726 -6.6865200642496347e-04</internalNodes>
      <leafValues>
        -9.8802685737609863e-01 2.1355415880680084e-01</leafValues></_></weakClassifiers></stage5>
</opencv_storage>
